// Real ANN (V7 ensemble of 5 seeds) from best_model_seed*.keras | arch [6-24-12-6-2] LeakyReLU(0.1)
// StandardScaler X & y. JS reimplementation verified identical to Keras (diff=0). Includes 96-building dataset.
window.ANN_MODEL = {"features":["H_total","N_etages","L_xx","L_yy","Trav_max_xx","Trav_max_yy"],"targets":["Tx","Ty"],"seeds":[42,123,456,789,1000],"arch":[6,24,12,6,2],"leaky":0.1,"scaler_X":{"mean":[26.548281249999995,8.40625,23.32609375000001,18.466250000000002,4.9370312499999995,4.306093749999999],"scale":[9.051889573917618,2.956553895585196,5.669707503805724,6.077724569071883,0.9821766002218936,0.8516594411564622]},"scaler_y":{"mean":[0.7238750000000003,0.6413656249999998],"scale":[0.21264579557329602,0.23684730723265435]},"models":[[{"kernel":[[0.3568336069583893,0.0514594241976738,-0.17264045774936676,0.36283397674560547,-0.22303298115730286,0.22312192618846893,0.5012553930282593,-0.07586081326007843,-0.03532987833023071,0.09311309456825256,-0.27193477749824524,-0.18955422937870026,0.38250425457954407,-0.31764456629753113,-0.058305781334638596,0.3200213611125946,-0.458396315574646,-0.28322672843933105,0.040093228220939636,-0.44828349351882935,-0.44685474038124084,0.16080227494239807,0.43380337953567505,-0.28136998414993286],[0.39765042066574097,-0.44040295481681824,0.007085265126079321,0.032580651342868805,0.2542308568954468,-0.3093833923339844,-0.11104211211204529,0.6253929734230042,-0.2095693200826645,-0.057117264717817307,-0.18190936744213104,-0.3316543996334076,0.12507057189941406,-0.4130798280239105,0.07021217048168182,0.3162045478820801,-0.31335511803627014,-0.014748025685548782,-0.10253271460533142,-0.13180312514305115,0.3690808117389679,-0.23191453516483307,0.1586388349533081,-0.17628462612628937],[-0.3458472192287445,-0.18180899322032928,0.1659410148859024,0.11148566752672195,-0.11280214041471481,-0.49236762523651123,0.2284402996301651,0.5417749881744385,-0.2695946991443634,-0.2869631350040436,-0.6765559315681458,-0.4282064139842987,0.26722344756126404,0.2311018407344818,0.17219707369804382,0.3338748514652252,-0.3136846125125885,0.445928156375885,-0.3164353668689728,-0.09450145810842514,0.34123197197914124,0.017339831218123436,0.29825717210769653,0.5417453050613403],[0.12277399003505707,-0.510231077671051,0.3043964207172394,-0.29319190979003906,0.409486323595047,0.3712180256843567,-0.11428426951169968,-0.17792212963104248,-0.4897439181804657,0.6620938181877136,-0.20274724066257477,-0.31729018688201904,-0.05260000750422478,-0.30088627338409424,0.5181577801704407,0.12225238233804703,0.3782923221588135,0.27313581109046936,0.09516075253486633,0.37232446670532227,-0.1688845306634903,-0.25403067469596863,0.25950103998184204,0.04427969455718994],[0.3603227436542511,0.43021902441978455,-0.12086362391710281,-0.5795179605484009,0.4331938624382019,0.4864365756511688,0.21284566819667816,-0.42067602276802063,-0.2759164273738861,0.13991348445415497,-0.1667640507221222,-0.07708553224802017,0.2998603284358978,0.15410791337490082,-0.2145693004131317,0.1281861811876297,0.11990181356668472,0.3323463201522827,0.016573822125792503,-0.20074085891246796,0.4311995208263397,-0.682646632194519,-0.40846946835517883,-0.3568686544895172],[0.028005659580230713,-0.3114173710346222,-0.5053205490112305,0.25651443004608154,0.37329500913619995,-0.24095013737678528,0.3727017343044281,-0.27433985471725464,0.10192354023456573,-0.49847930669784546,0.26273444294929504,-0.06546568870544434,0.07165807485580444,0.08086517453193665,-0.3965778052806854,-0.382831335067749,0.04820398986339569,0.0053430222906172276,0.4033217132091522,-0.4057391881942749,-0.4290037155151367,-0.48522433638572693,0.16052395105361938,0.4576071798801422]],"bias":[0.13270244002342224,0.08879590779542923,-0.03808064013719559,-0.2866709530353546,0.04533925652503967,0.042784109711647034,0.13658495247364044,-0.18140731751918793,-0.010360554791986942,0.06304854899644852,0.16333946585655212,-0.1020541712641716,-0.14392440021038055,0.2710457146167755,0.1346135139465332,0.013733351603150368,0.33322641253471375,0.0648655965924263,-0.0653378963470459,0.13409633934497833,0.05325043946504593,0.06872046738862991,0.18135760724544525,0.356102854013443]},{"kernel":[[0.1859995424747467,-0.052809152752161026,0.2720388174057007,0.353967547416687,0.2896786630153656,-0.24481943249702454,0.10265221446752548,-0.02322511188685894,-0.3647719621658325,-0.2256743460893631,-0.13941161334514618,0.07044924795627594],[0.2266213297843933,0.25163549184799194,-0.22190915048122406,-0.8418679237365723,-0.2576451897621155,0.17444315552711487,0.38062548637390137,0.007705361116677523,0.3280526101589203,0.3258536159992218,0.4396357238292694,0.09188266843557358],[0.07758596539497375,0.3241191506385803,-0.00663673784583807,-0.3472427725791931,0.34568172693252563,-0.02959980070590973,-0.12289176136255264,0.07341419160366058,0.4773826599121094,0.3983435332775116,-0.3196580410003662,-0.20850630104541779],[-0.17462638020515442,-0.20956239104270935,-0.34269148111343384,-0.04553378000855446,-0.2776736319065094,0.2583809196949005,-0.10164110362529755,0.2988929748535156,0.16478557884693146,0.5598509311676025,-0.09048203378915787,-0.20923195779323578],[-0.24081939458847046,-0.17800554633140564,0.2730293571949005,0.3187996745109558,0.37733393907546997,0.17889368534088135,0.25410589575767517,0.1958198845386505,0.07424023002386093,0.25554323196411133,-0.0659041702747345,-0.07372941076755524],[0.17657791078090668,-0.3074573874473572,-0.5182312726974487,-0.18789435923099518,-0.1294165998697281,0.3138895630836487,0.3860018253326416,-0.0554705373942852,0.263542503118515,-0.12095020711421967,0.6964667439460754,-0.1470530778169632],[-0.38506853580474854,0.04817291349172592,0.22299768030643463,0.44309866428375244,0.3601207733154297,-0.45963847637176514,-0.0676024928689003,-0.45177486538887024,-0.12350445985794067,-0.06437414884567261,0.29342395067214966,0.32752588391304016],[0.29883891344070435,0.04313388466835022,-0.6336657404899597,0.021032923832535744,-0.35006725788116455,-0.4638885259628296,-0.23669280111789703,0.2459791749715805,-0.008284744806587696,0.7100585699081421,0.3275807201862335,-0.6231898069381714],[0.2685184180736542,0.07914263010025024,0.11681531369686127,0.051491666585206985,0.010390873067080975,-0.11948512494564056,0.082328200340271,0.11925837397575378,0.5255683660507202,-0.03663547337055206,0.03105555661022663,-0.27734535932540894],[-0.12245657294988632,-0.502540111541748,-0.2529712915420532,-0.0032799523323774338,0.17678728699684143,0.53717440366745,-0.37098777294158936,0.3970913589000702,-0.1917598694562912,0.2643892765045166,0.1325376182794571,-0.3137401044368744],[0.2875836193561554,-0.06783513724803925,0.1862272322177887,-0.06835829466581345,0.41429704427719116,-0.5155450701713562,-0.1952885389328003,0.30550163984298706,-0.1759738028049469,-0.017068108543753624,-0.005635071080178022,0.024606017395853996],[0.03014623560011387,0.2797508239746094,0.1488693505525589,-0.017742358148097992,-0.1560044288635254,-0.37259751558303833,-0.2285609245300293,0.07011302560567856,0.16728754341602325,0.35526514053344727,-0.003724129870533943,-0.002359469886869192],[-0.2869342267513275,-0.11670675128698349,-0.10176019370555878,-0.23471245169639587,0.23407505452632904,0.1408213973045349,0.10669883340597153,-0.5503952503204346,-0.1860610842704773,0.2739751935005188,0.3309805691242218,-0.19865384697914124],[0.31846335530281067,0.017323721200227737,0.39723125100135803,0.2533641755580902,-0.4640837609767914,-0.36644676327705383,-0.37871384620666504,0.12663879990577698,0.3668613135814667,0.17836812138557434,-0.16956579685211182,0.2256574183702469],[0.16099613904953003,0.2266077995300293,0.039965689182281494,-0.019574638456106186,0.37220877408981323,-0.24991358816623688,-0.05409585312008858,0.2010631412267685,0.031378861516714096,0.5358960628509521,0.17514009773731232,-0.3289892077445984],[0.025906583294272423,-0.2326146960258484,0.26319006085395813,0.12200839072465897,0.238938570022583,-0.10610411316156387,-0.2550979256629944,0.14040163159370422,-0.14007095992565155,0.27218323945999146,-0.2251196652650833,0.1830337941646576],[-0.16000443696975708,0.18607516586780548,0.05265717953443527,0.527000367641449,0.17176352441310883,0.16290627419948578,-0.4153023660182953,0.4342852532863617,0.1322699636220932,0.11103115975856781,0.03834325820207596,0.12915153801441193],[0.2512538433074951,-0.04484175145626068,-0.2594178318977356,-0.45948147773742676,-0.06079411134123802,-0.16094772517681122,-0.009893898852169514,0.03835391253232956,0.2970627248287201,0.4683023989200592,-0.15389609336853027,-0.4232555627822876],[-0.28555184602737427,-0.411385178565979,0.07496190816164017,-0.2101486325263977,0.1737915575504303,-0.2658996284008026,0.018621336668729782,0.2528987526893616,-0.4381696581840515,-0.24775005877017975,-0.1716488152742386,0.11115341633558273],[-0.14332500100135803,0.232016921043396,-0.04958625137805939,-0.0021531276870518923,0.24826465547084808,0.28744104504585266,-0.09846863895654678,0.3752860128879547,0.20176786184310913,0.34545695781707764,-0.013839123770594597,-0.34068936109542847],[0.02548791654407978,-0.4466049373149872,0.266944020986557,0.43522775173187256,0.06205330044031143,-0.38688531517982483,0.16551963984966278,-0.49714285135269165,-0.47385215759277344,-0.37676313519477844,-0.4377182722091675,0.29990726709365845],[0.05359751731157303,-0.46246713399887085,0.13210554420948029,0.24057716131210327,0.6263056397438049,-0.49301567673683167,-0.16460050642490387,-0.2521294951438904,-0.16204608976840973,0.06618234515190125,0.06612832099199295,0.31148815155029297],[-0.18958312273025513,0.46388718485832214,-0.13545462489128113,-0.02496769092977047,0.3028964400291443,-0.04431535676121712,-0.47844645380973816,0.2734495997428894,-0.2915634512901306,0.21702587604522705,0.35163894295692444,0.2999599874019623],[-0.14913642406463623,0.3643314242362976,-0.17865824699401855,-0.04243137687444687,-0.2216940075159073,-0.2964518964290619,-0.10245724022388458,0.18119476735591888,0.31821194291114807,0.45268529653549194,-0.3511897325515747,-0.5449672341346741]],"bias":[-0.17019231617450714,0.18951372802257538,0.13721013069152832,0.13798025250434875,0.09202807396650314,0.04103335365653038,-0.14120319485664368,0.12887082993984222,0.13915696740150452,-0.05174405500292778,-0.19285672903060913,0.0887736827135086]},{"kernel":[[0.011176188476383686,-0.17095668613910675,-0.26428869366645813,-0.5878030061721802,-0.21677102148532867,0.29350316524505615],[-0.5795251131057739,-0.3739691376686096,-0.9690958261489868,-0.6730140447616577,0.01871129497885704,0.24104267358779907],[0.10571277886629105,0.7679581046104431,0.2502002418041229,0.05181137099862099,0.28721314668655396,0.34174254536628723],[-0.03857875242829323,0.05921868979930878,-0.015021408908069134,0.6595949530601501,-0.49116167426109314,-0.5579018592834473],[-0.3813599646091461,0.3968674838542938,0.3557586967945099,0.18677853047847748,0.4243870675563812,-0.5071395039558411],[-0.35274985432624817,-0.06620105355978012,-1.04558265209198,-0.32442203164100647,0.3764919936656952,0.3283230662345886],[-0.05416134372353554,-0.23547175526618958,-0.4066731035709381,-0.716092586517334,-0.16894613206386566,0.19284790754318237],[-0.6321173906326294,-0.5688742995262146,0.2865627706050873,-0.19871322810649872,-0.1848573535680771,0.357394814491272],[-0.013204365968704224,0.23455755412578583,-0.7339232563972473,-0.4501938223838806,-0.34851711988449097,0.1610121726989746],[-0.325205534696579,-0.7515011429786682,0.3185783922672272,-0.8892363905906677,0.23693422973155975,-0.05987877398729324],[-0.06482430547475815,-0.1831919401884079,-0.2295418530702591,-0.37914276123046875,-0.6349377036094666,-0.265860378742218],[-0.06513182073831558,0.2683769762516022,0.6166443228721619,0.18657724559307098,0.19582004845142365,-0.5153011083602905]],"bias":[-0.10063150525093079,0.04813309758901596,0.04402827471494675,0.10334857553243637,0.023856867104768753,-0.01449395902454853]},{"kernel":[[0.6231435537338257,0.5965006947517395],[0.1260768473148346,0.6081170439720154],[0.883168637752533,0.5716214776039124],[0.8845797181129456,1.2349034547805786],[-0.6016973853111267,0.5454186201095581],[-0.8426316976547241,-0.001646383316256106]],"bias":[-0.012943529523909092,-0.17898021638393402]}],[{"kernel":[[0.2239168882369995,0.09705039858818054,-0.15822897851467133,0.30970484018325806,-0.5051702857017517,-0.16558639705181122,0.15917974710464478,-0.08400966227054596,0.21111157536506653,-0.20877936482429504,0.05202431604266167,-0.39558306336402893,0.18109022080898285,-0.23842808604240417,0.17427557706832886,-0.004920788109302521,0.3859986960887909,0.3089529573917389,-0.363034725189209,0.1431032419204712,-0.18026693165302277,-0.38530880212783813,-0.0853608101606369,0.17104196548461914],[0.5069620609283447,0.4729292094707489,-0.5828814506530762,0.24448531866073608,-0.420669823884964,-0.08192433416843414,-0.40856093168258667,0.28880640864372253,0.3335106670856476,0.3161066770553589,-0.3654770851135254,-0.44963738322257996,0.007321339566260576,-0.08036584407091141,-0.014312122017145157,0.10749679803848267,0.05648009851574898,-0.1662324219942093,-0.09765838086605072,0.43604937195777893,-0.31385889649391174,0.43967896699905396,0.26142171025276184,0.028541995212435722],[-0.311227411031723,-0.15582963824272156,-0.1635710746049881,0.13414566218852997,0.007510891184210777,0.31556403636932373,-0.06532347202301025,0.4514243006706238,0.11377952247858047,0.32031023502349854,0.09460362792015076,0.2915804088115692,-0.23222093284130096,0.03830990940332413,-0.3035120964050293,-0.16734887659549713,-0.30289289355278015,0.4925173223018646,-0.28908056020736694,0.277071088552475,0.3551916182041168,-0.23902525007724762,0.3472897708415985,-0.4669044315814972],[-0.23686499893665314,0.12278828769922256,0.17349515855312347,0.26355549693107605,-0.1658000349998474,-0.16623768210411072,0.26835349202156067,-0.1250656694173813,-0.23363855481147766,0.022946322336792946,0.3703692853450775,-0.520847737789154,0.17103828489780426,-0.21692141890525818,0.22924254834651947,0.0295355673879385,-0.03290398418903351,0.12316763401031494,-0.046701133251190186,-0.09678024798631668,-0.052144311368465424,0.3359701931476593,-0.12714895606040955,0.09139595925807953],[0.5149872899055481,0.05828733369708061,-0.05162760987877846,-0.39344027638435364,0.22329996526241302,-0.01699654385447502,-0.32212576270103455,0.3284178674221039,0.18627609312534332,0.24901370704174042,0.2926081418991089,0.12409081310033798,0.24937598407268524,-0.2559681236743927,0.23113931715488434,0.4657771587371826,-0.46029749512672424,-0.2759041488170624,-0.47958070039749146,0.2423165887594223,0.007955051958560944,0.2606358826160431,0.42189717292785645,0.05945692956447601],[0.3813386857509613,0.24939429759979248,0.06885209679603577,-0.1567901372909546,-0.12942726910114288,0.0725071132183075,0.35652875900268555,0.03332610800862312,-0.3212868869304657,-0.11177083104848862,-0.5744203925132751,-0.34000569581985474,0.3048381805419922,0.34630709886550903,0.15124987065792084,-0.22857727110385895,0.027431078255176544,0.3555651009082794,-0.35283756256103516,-0.15296749770641327,0.29490309953689575,-0.4963889420032501,0.07441957294940948,0.40211206674575806]],"bias":[0.018123403191566467,0.0737234428524971,0.0649876594543457,-0.01111370138823986,0.1090177595615387,0.1185360997915268,0.020936770364642143,0.028978845104575157,0.11821724474430084,0.07497355341911316,0.04476971924304962,0.01381776761263609,0.03002842515707016,0.06477735191583633,0.09617087244987488,0.06337189674377441,-0.032253462821245193,0.058793049305677414,0.15517976880073547,0.11915969848632812,0.08023474365472794,-0.001632027793675661,0.09222926199436188,-0.027570363134145737]},{"kernel":[[0.4702282249927521,-0.36876559257507324,-0.2568325698375702,-0.2683851718902588,0.37715160846710205,-0.0654391348361969,0.2993868887424469,-0.3614928126335144,0.24298079311847687,-0.21037636697292328,-0.2756187915802002,0.4821866750717163],[0.3779798746109009,-0.3228408992290497,0.08353206515312195,-0.38412487506866455,0.010905486531555653,0.16939415037631989,-0.3816697299480438,0.21907445788383484,-0.06774414330720901,0.31792423129081726,0.3391242027282715,0.12450810521841049],[-0.056709542870521545,0.3945305645465851,0.37269842624664307,0.24411256611347198,0.009082576259970665,0.3412686586380005,0.2566511929035187,0.16224081814289093,-0.16550543904304504,0.25561919808387756,0.033029451966285706,-0.164544016122818],[0.08803588151931763,-0.29649773240089417,0.05981999635696411,-0.016710197553038597,-0.45018336176872253,0.24413563311100006,0.09478400647640228,-0.41885286569595337,-0.06464140117168427,-0.23286016285419464,-0.063189297914505,0.40897858142852783],[-0.021003250032663345,0.005801219493150711,-0.05158969759941101,0.3595278263092041,-0.15256072580814362,0.001026364741846919,0.17597633600234985,0.24149753153324127,0.04660946875810623,0.0017435981426388025,0.18835186958312988,-0.48970726132392883],[-0.26757514476776123,0.3886072635650635,0.0754331424832344,0.16285432875156403,-0.06359170377254486,-0.15746788680553436,0.27885702252388,-0.1845855414867401,-0.13504309952259064,-0.1725400686264038,-0.08884355425834656,-0.12322189658880234],[-0.10597582906484604,-0.2607893943786621,-0.22562170028686523,-0.030785664916038513,-0.12334068864583969,0.12339509278535843,-0.09429236501455307,-0.13339798152446747,-0.37224680185317993,-0.17971204221248627,0.3775307536125183,-0.19092722237110138],[0.10168641805648804,0.15232469141483307,-0.16492249071598053,0.07682813704013824,-0.1863105446100235,0.30165114998817444,-0.45955976843833923,0.16914772987365723,0.42589813470840454,-0.08847278356552124,0.04778251424431801,-0.07854069769382477],[-0.07724601030349731,-0.10262870788574219,-0.08892699331045151,-0.4599737823009491,0.12218489497900009,0.04811542108654976,-0.18372264504432678,-0.05451689288020134,0.3789363205432892,0.16574005782604218,-0.13140809535980225,0.2824314534664154],[0.3159986138343811,0.023865848779678345,0.05681437626481056,0.1308441460132599,-0.3056527376174927,-0.121190644800663,-0.0676504448056221,-0.3029518127441406,0.43617963790893555,0.40819284319877625,0.14749087393283844,0.1325521618127823],[-0.05209767445921898,0.2548568844795227,0.43645837903022766,0.0829821228981018,-0.3975153863430023,0.17212504148483276,-0.4595052897930145,0.33658745884895325,0.2968667149543762,0.08392380177974701,0.12345366925001144,0.30829712748527527],[-0.39077121019363403,0.3100407123565674,0.46317213773727417,-0.07502404600381851,-0.30192264914512634,-0.032459985464811325,-0.1574418991804123,0.20338858664035797,-0.34361669421195984,-0.5095574855804443,-0.23837968707084656,-0.13278615474700928],[0.1812446266412735,0.1096683219075203,0.21161668002605438,0.305168479681015,0.32878378033638,-0.0944884866476059,-0.3629656434059143,0.09359229356050491,0.24130769073963165,0.007756615988910198,-0.029616612941026688,-0.13832755386829376],[0.20009049773216248,-0.09010292589664459,-0.20123697817325592,0.5983076095581055,-0.2676049768924713,0.07618007063865662,0.37701767683029175,-0.14631716907024384,-0.13863131403923035,0.1701846867799759,0.005873543675988913,0.11572572588920593],[0.45643872022628784,0.33314019441604614,0.1336873471736908,-0.37355440855026245,-0.002104856539517641,0.27122199535369873,-0.3736529052257538,0.226390540599823,0.05302313342690468,0.42683711647987366,-0.31640625,0.03359111770987511],[0.34500691294670105,-0.017420034855604172,0.22836433351039886,-0.10718750208616257,0.3774426281452179,0.18354330956935883,0.2908017039299011,0.29474323987960815,0.3519205152988434,-0.020255953073501587,0.2468661069869995,-0.1614156812429428],[0.22157219052314758,0.14268724620342255,-0.06445598602294922,-0.33999475836753845,-0.279153972864151,0.08487921208143234,-0.15136967599391937,0.15298864245414734,-0.5568876266479492,0.16391775012016296,-0.16837634146213531,-0.06677515804767609],[-0.11201228946447372,-0.012898705899715424,0.22139456868171692,0.47265249490737915,0.23776599764823914,-0.2082524597644806,-0.33379146456718445,0.2984069585800171,0.04301220178604126,-0.17017677426338196,0.3523433208465576,-0.130348801612854],[0.39989224076271057,-0.259505957365036,0.04945244640111923,0.02577211521565914,-0.22821064293384552,0.2916361689567566,0.36108481884002686,0.22291415929794312,-0.2125130444765091,0.37798893451690674,-0.16728119552135468,0.2044883668422699],[0.28080642223358154,-0.05578971654176712,-0.33065927028656006,-0.007396553177386522,0.4250875413417816,-0.14516673982143402,0.17816491425037384,0.13560046255588531,-0.03828519210219383,0.44896483421325684,-0.08786306530237198,0.007036173716187477],[-0.27218198776245117,0.2557447552680969,0.11332719027996063,0.09677603095769882,-0.5471873879432678,-0.0683102235198021,0.36929070949554443,-0.046699464321136475,-0.26936909556388855,0.08532848209142685,0.19512563943862915,-0.0031380713917315006],[-0.260832279920578,0.05839180946350098,0.2949640452861786,-0.10433748364448547,-0.09132659435272217,-0.088727205991745,-0.3129788041114807,-0.24589647352695465,0.2408633679151535,0.36784327030181885,0.023854680359363556,-0.1565590351819992],[0.189982071518898,0.298209547996521,-0.1572602093219757,0.08421287685632706,-0.15025372803211212,-0.2537095546722412,-0.023308316245675087,-0.3603704571723938,0.09782636165618896,-0.1428154855966568,-0.2696993947029114,0.3767783045768738],[-0.2848537564277649,-0.1425369381904602,-0.0672488585114479,0.18786825239658356,0.3454480767250061,0.0584990456700325,0.2850310504436493,-0.36361071467399597,-0.24345776438713074,0.29402145743370056,0.23146302998065948,-0.27663013339042664]],"bias":[0.12202867865562439,0.054372306913137436,0.009153087623417377,0.14952903985977173,0.06824382394552231,-0.0604570098221302,-0.03989478945732117,0.10615647584199905,0.11349862068891525,0.04901120439171791,0.015987033024430275,0.07648690044879913]},{"kernel":[[-0.05929484963417053,0.22022780776023865,-0.3687478005886078,0.27275803685188293,-0.3096074163913727,0.17711523175239563],[0.6440525054931641,0.09945431351661682,0.24193646013736725,0.23060955107212067,-0.2653414011001587,-0.584907054901123],[0.37271273136138916,0.4873180687427521,0.3409480154514313,-0.17412671446800232,0.5939816236495972,0.16707417368888855],[0.5918093919754028,0.22485126554965973,-0.3634994626045227,-0.3534770905971527,0.40461498498916626,-0.11591378599405289],[-0.2743442952632904,-0.10340208560228348,-0.26952680945396423,0.5666645765304565,0.10983069241046906,0.7025136947631836],[0.16186513006687164,-0.4789431095123291,-0.31396469473838806,-0.023371964693069458,-0.3933884799480438,-0.05758175626397133],[-0.04208270460367203,-0.3060612380504608,-0.4836578965187073,-0.33780962228775024,0.30780336260795593,-0.46013715863227844],[0.2801538109779358,0.15863405168056488,-0.08386184275150299,0.3199876546859741,0.21314316987991333,-0.34047096967697144],[-0.26658931374549866,-0.36757755279541016,0.013043948449194431,-0.36955907940864563,0.1985553503036499,0.5265741944313049],[-0.3440517783164978,0.03870765492320061,0.11236152797937393,0.3242909014225006,-0.11925355345010757,0.38974109292030334],[0.3004050552845001,-0.20450539886951447,0.43591779470443726,-0.12481018900871277,-0.13449467718601227,-0.38636982440948486],[-0.3541087806224823,-0.3837781250476837,-0.46162673830986023,0.1625857800245285,-0.21474602818489075,0.3444157540798187]],"bias":[0.184282585978508,0.04195072874426842,0.0012066313065588474,0.08523470908403397,0.0326082743704319,0.07476817816495895]},{"kernel":[[-0.11490213871002197,-0.2943906784057617],[0.5294685363769531,-0.4280230402946472],[-0.4711624085903168,0.21947763860225677],[0.6231786012649536,-0.12844876945018768],[-0.9163124561309814,0.24054360389709473],[0.08095511049032211,0.4218950569629669]],"bias":[-0.05015389248728752,-0.04654913768172264]}],[{"kernel":[[0.20632882416248322,0.3234594166278839,-0.1506282538175583,-0.21065163612365723,0.25144249200820923,0.14551539719104767,-0.3745417594909668,0.43110236525535583,0.6577358841896057,-0.2273181527853012,0.38536155223846436,-0.2972703278064728,0.07222072035074234,-0.28047582507133484,-0.17367641627788544,-0.35266533493995667,-0.24267837405204773,0.40407153964042664,-0.11108100414276123,0.015355290845036507,0.34296247363090515,-0.47699299454689026,-0.21486534178256989,-0.40999719500541687],[0.40075740218162537,-0.3231121599674225,-0.19663164019584656,0.05039755627512932,-0.2395019233226776,-0.21663431823253632,0.014309055171906948,0.028443176299333572,-0.1667177379131317,-0.15870147943496704,-0.12974432110786438,-0.5135068297386169,-0.20621614158153534,0.07295393198728561,0.31380873918533325,0.1557212620973587,-0.20940163731575012,0.1909005343914032,-0.27920347452163696,0.37871667742729187,-0.15574762225151062,-0.5265549421310425,-0.3033978044986725,0.3167418837547302],[-0.03456848859786987,0.014335931278765202,0.0980832427740097,-0.12041148543357849,0.023148002102971077,-0.5319402813911438,0.33231866359710693,0.006639065686613321,0.1502310186624527,-0.19169388711452484,0.12479477375745773,0.008779095485806465,-0.08288692682981491,0.4581897258758545,0.16415639221668243,-0.15447035431861877,0.06092023476958275,-0.30535265803337097,0.24152910709381104,-0.028899671509861946,-0.04092119634151459,-0.19056598842144012,-0.04927294701337814,-0.48320189118385315],[0.15441586077213287,0.2723405659198761,0.1859748214483261,0.2832109034061432,-0.06940186768770218,0.33798810839653015,-0.20320121943950653,-0.03325847163796425,-0.6333663463592529,-0.20055408775806427,-0.06578929722309113,0.29384857416152954,0.08639461547136307,0.2495422512292862,-0.4930332601070404,-0.26823481917381287,-0.1413937658071518,-0.226878821849823,-0.4646475911140442,0.1569405496120453,0.46031326055526733,-0.009446549229323864,0.34959346055984497,-0.4795971214771271],[0.008717632852494717,-0.06177862361073494,0.6056013107299805,-0.1363377571105957,-0.11567537486553192,-0.39056646823883057,0.21768774092197418,0.15099313855171204,0.2414146065711975,-0.07590171694755554,0.1787574142217636,-0.25914525985717773,-0.42370057106018066,-0.3483915328979492,0.35959842801094055,0.1863192319869995,0.2589934468269348,0.2985348403453827,0.35789310932159424,0.16187366843223572,-0.33481746912002563,-0.3779788613319397,-0.20574820041656494,-0.29726099967956543],[-0.26104554533958435,-0.40348467230796814,0.17314159870147705,-0.10466323047876358,0.449581503868103,0.5146365761756897,0.1691557914018631,0.5410937070846558,0.15551969408988953,0.3614245355129242,0.38568031787872314,-0.23765593767166138,-0.028639979660511017,-0.0010765475453808904,0.6459673047065735,0.1789252758026123,-0.5187857151031494,-0.32537150382995605,-0.46266958117485046,-0.27114740014076233,0.42693987488746643,-0.3997056782245636,-0.20846740901470184,0.15306997299194336]],"bias":[0.05280260369181633,0.0005664544296450913,0.1940547227859497,-0.07648897916078568,0.06396274268627167,-0.09486155211925507,-0.08048038184642792,-0.015239113941788673,0.17270267009735107,0.04475592076778412,-0.0466633103787899,0.1262410432100296,0.026833150535821915,-0.04130464047193527,0.12760357558727264,-0.012402033433318138,-0.006023057270795107,0.05743227154016495,0.005938335321843624,-0.04957769066095352,-0.004957523196935654,0.0842149555683136,0.06858018785715103,0.04986361786723137]},{"kernel":[[0.06112050637602806,-0.22523809969425201,-0.2978931963443756,-0.3036843538284302,0.31190353631973267,0.00038055694312788546,-0.11796358972787857,-0.4700814485549927,-0.4135672450065613,0.18870681524276733,-0.04144473746418953,0.10714825987815857],[-0.2938508689403534,0.12789946794509888,0.2022770196199417,0.0059206304140388966,-0.18277259171009064,0.17774447798728943,-0.21047651767730713,-0.17101895809173584,-0.11301791667938232,-0.39185547828674316,-0.3108598291873932,0.33874544501304626],[0.04589292034506798,0.1917096972465515,-0.1495622843503952,-0.07291722297668457,0.20984689891338348,-0.3009525239467621,-0.12137436866760254,0.2771146297454834,0.18760763108730316,-0.19111576676368713,0.1721818596124649,0.35518357157707214],[-0.3421405255794525,-0.0959274098277092,-0.19708366692066193,-0.18204915523529053,-0.2385420799255371,0.042802050709724426,0.14792446792125702,-0.3182704746723175,0.05669768527150154,-0.16856227815151215,-0.1560618132352829,-0.10609696060419083],[0.10178550332784653,0.2648105323314667,-0.1281365007162094,0.3281710743904114,0.3860219717025757,-0.1446543037891388,0.12777940928936005,0.3103359043598175,0.10768688470125198,0.1760052889585495,-0.09112047404050827,0.35968661308288574],[0.010074238292872906,-0.1567981243133545,0.10174743086099625,0.054334141314029694,0.22904691100120544,-0.4702042043209076,-0.2709825932979584,-0.16770386695861816,-0.1577317714691162,0.32058611512184143,-0.07671092450618744,0.23764725029468536],[-0.0910937711596489,-0.17073974013328552,0.018588125705718994,-0.017411647364497185,0.01228669099509716,0.04749166592955589,0.34770211577415466,-0.23548083007335663,-0.36258062720298767,-0.3182814121246338,0.0063056135550141335,-0.11616936326026917],[0.05254890397191048,-0.16315196454524994,-0.09999118000268936,-0.19861137866973877,0.16004756093025208,-0.04062953591346741,0.15404072403907776,0.3564072847366333,-0.03393060714006424,0.1487814337015152,-0.4307277798652649,0.45496129989624023],[-0.007646660320460796,0.12032779306173325,-0.1538921296596527,0.3437250256538391,0.2487105280160904,-0.0355432890355587,-0.02236618474125862,-0.2556048035621643,-0.19467724859714508,-0.18783198297023773,-0.40845930576324463,0.47460663318634033],[-0.2497546374797821,0.0936720073223114,-0.07356471568346024,0.43449369072914124,0.07806223630905151,0.37558358907699585,0.3859447240829468,0.010949747636914253,0.3507286608219147,-0.09992153197526932,0.2841290235519409,-0.08688168227672577],[0.3137279152870178,-0.36460116505622864,-0.055577415972948074,0.32589471340179443,0.038963716477155685,-0.19925719499588013,-0.0999474748969078,-0.2775643467903137,0.15155662596225739,-0.03780464455485344,-0.1595175564289093,0.08732887357473373],[-0.2899152934551239,0.13555750250816345,-0.18411454558372498,0.39287036657333374,-0.48154959082603455,0.005439453292638063,-0.2889556288719177,0.34674522280693054,0.2578773498535156,-0.18744298815727234,0.2490660548210144,-0.3270926773548126],[-0.013453752733767033,0.12028643488883972,-0.049117207527160645,-0.19894425570964813,-0.04495548456907272,0.12846390902996063,-0.01868620701134205,0.01220819540321827,-0.15102519094944,0.20268769562244415,0.09800010174512863,-0.18300585448741913],[-0.3018200695514679,0.10771549493074417,0.3291485011577606,0.3149458169937134,-0.28985604643821716,-0.3221527934074402,0.06009132042527199,0.2665163576602936,0.21984954178333282,-0.3257395327091217,-0.2646634876728058,-0.1274767518043518],[0.10629360377788544,0.25970858335494995,-0.17402976751327515,0.28580257296562195,0.3650427758693695,0.4451099932193756,-0.15214498341083527,0.12337856739759445,-0.26369473338127136,-0.009570709429681301,-0.4093211889266968,0.25778383016586304],[-0.05007265880703926,-0.19349858164787292,-0.17440856993198395,-0.11371240019798279,0.11727914959192276,0.2997070252895355,0.2546927034854889,-0.26496434211730957,0.22125732898712158,0.3080688416957855,0.22163617610931396,0.1856243908405304],[0.1269826889038086,0.060920316725969315,0.32198867201805115,-0.09670984745025635,-0.07873859256505966,0.15397365391254425,0.23077037930488586,-0.2626977562904358,0.03917819634079933,-0.19971546530723572,-0.4744293689727783,-0.4092099368572235],[0.2769632339477539,-0.16629117727279663,0.2851184904575348,-0.13648362457752228,0.4961260259151459,-0.250794380903244,0.18926198780536652,0.054788988083601,0.36800912022590637,-0.15789783000946045,-0.35615184903144836,0.560127317905426],[-0.2656758725643158,0.26522374153137207,-0.0022455535363405943,-0.166172593832016,-0.5001426935195923,0.02025722712278366,0.29741883277893066,0.05603364109992981,0.2902449369430542,0.1757112741470337,-0.49722230434417725,-0.13190415501594543],[-0.3064808249473572,0.005274167284369469,-0.02476063370704651,0.2980562150478363,0.046520303934812546,-0.3021297752857208,0.055870283395051956,0.05433813855051994,0.19878429174423218,-0.26102110743522644,-0.21073028445243835,0.3592602014541626],[-0.04855374991893768,0.31820017099380493,-0.10644244402647018,0.14484626054763794,0.039873261004686356,0.2714502215385437,0.17571784555912018,-0.13755378127098083,-0.15649081766605377,0.3924183249473572,0.48011839389801025,0.02648954465985298],[-0.19989624619483948,-0.4521804451942444,-0.337417870759964,0.23549078404903412,-0.308526873588562,0.2217860072851181,-0.03507436439394951,0.3570038378238678,0.21822020411491394,0.3467838764190674,-0.22090059518814087,-0.4079746901988983],[-0.21822363138198853,0.330279678106308,0.08021964132785797,0.03877026215195656,-0.14896348118782043,-0.3306025266647339,0.13173794746398926,-0.09844657778739929,0.028313061222434044,0.21685779094696045,0.08503477275371552,-0.504016101360321],[-0.22118324041366577,0.2367846965789795,-0.023846246302127838,0.5120074152946472,-0.005616773851215839,0.14991489052772522,-0.001615679357200861,0.13532380759716034,-0.3161318004131317,0.08702454715967178,-0.3169161081314087,-0.046320635825395584]],"bias":[0.012264106422662735,0.03437434509396553,-0.03563472628593445,0.0009676209883764386,0.0996820405125618,0.03816521540284157,-0.05077441781759262,0.07849626243114471,-0.04917034134268761,0.00032768698292784393,0.02904408797621727,0.08556757867336273]},{"kernel":[[-0.04891422763466835,-0.21962006390094757,-0.7200159430503845,0.4018852710723877,-0.10515992343425751,-0.4803015887737274],[0.3426736295223236,0.24590645730495453,0.4261505901813507,0.6634091734886169,-0.2970738112926483,0.19223438203334808],[0.34140273928642273,0.2221001535654068,0.47825494408607483,0.21078714728355408,0.14556695520877838,-0.10894547402858734],[-0.6999930739402771,-0.5782346725463867,-0.23055997490882874,0.45325803756713867,0.3768923878669739,-0.45145121216773987],[-0.35353878140449524,-0.2858707308769226,-0.9265718460083008,0.32767391204833984,-0.34237486124038696,-0.7435780167579651],[-0.2079765349626541,-0.2879321277141571,-0.047902416437864304,0.6121280789375305,0.5657936930656433,0.26596012711524963],[0.23076029121875763,0.07401778548955917,0.4572007656097412,0.5438165068626404,-0.005220114253461361,0.025984065607190132],[-0.5024570822715759,-0.15316274762153625,0.13740111887454987,0.17834025621414185,0.4365214705467224,0.460849404335022],[0.3810151517391205,0.4070843756198883,-0.24202047288417816,0.0872780904173851,0.023199772462248802,-0.18383103609085083],[-0.029879068955779076,0.20292048156261444,-0.3847387135028839,-0.54819655418396,-0.1830855756998062,-0.3825708329677582],[0.06434158235788345,0.626693844795227,0.49017101526260376,0.2180146425962448,0.59233558177948,0.26900655031204224],[-0.19496457278728485,0.054694272577762604,-0.7121806740760803,-0.45935603976249695,0.2178293764591217,-0.5674499273300171]],"bias":[-0.07528911530971527,-0.09539846330881119,-0.09069525450468063,-0.06330721825361252,-0.06467132270336151,-0.07064297795295715]},{"kernel":[[-0.7358231544494629,0.39027342200279236],[-0.9327996373176575,-0.6105832457542419],[-1.2167187929153442,-1.0420719385147095],[-0.8501416444778442,-0.4738960564136505],[-0.2564040422439575,-0.331563800573349],[-0.21717989444732666,-0.8154126405715942]],"bias":[0.28217583894729614,0.20995450019836426]}],[{"kernel":[[-0.3133063316345215,0.3522438704967499,0.33737891912460327,0.256127268075943,0.14694468677043915,-0.30966413021087646,-0.3058561682701111,0.39434096217155457,0.15571269392967224,0.08799014240503311,0.14828312397003174,-0.3089112639427185,-0.22512690722942352,-0.34587541222572327,0.4344521760940552,-0.514242947101593,-0.025647561997175217,-0.006069800816476345,-0.22703449428081512,-0.21832366287708282,-0.32705941796302795,0.31291306018829346,-0.3561672270298004,0.5329949259757996],[-0.029675601050257683,0.214986652135849,-0.19399315118789673,-0.2720470726490021,0.021927472203969955,0.22264374792575836,0.24480992555618286,-0.019240887835621834,-0.5050817728042603,-0.23373225331306458,0.4904061555862427,0.2169337421655655,0.15471693873405457,-0.17070260643959045,-0.21979719400405884,-0.3529830873012543,-0.1373567134141922,-0.06358885020017624,-0.3888093829154968,-0.11135298758745193,0.15594440698623657,-0.1571650505065918,-0.16392813622951508,-0.1261657178401947],[-0.1871022880077362,-0.3409995138645172,-0.12583932280540466,0.05052224546670914,-0.292706161737442,-0.4610215425491333,-0.07517419010400772,-0.20614522695541382,-0.08980041742324829,-0.109869085252285,0.4658997356891632,0.39997920393943787,0.042551591992378235,0.13648143410682678,0.1529461294412613,0.023091547191143036,-0.19824157655239105,-0.36255326867103577,-0.16262009739875793,0.4236408472061157,0.4322661757469177,0.07693745195865631,-0.13201914727687836,-0.18443776667118073],[0.3785073161125183,0.12670676410198212,0.32537057995796204,0.5127721428871155,0.009034689515829086,-0.13635309040546417,0.01850384846329689,0.12555734813213348,-0.043840192258358,0.3634410500526428,0.17756573855876923,-0.1455470770597458,0.10853086411952972,0.04557047411799431,0.260375440120697,-0.3013990819454193,-0.2327292561531067,-0.38604333996772766,0.18557950854301453,0.31609204411506653,-0.22683687508106232,-0.060341715812683105,0.21550080180168152,0.3341580033302307],[-0.31845197081565857,0.1054050475358963,0.3576323688030243,0.2862837314605713,0.08454202115535736,0.029983732849359512,0.4313229024410248,0.22857946157455444,0.1269439160823822,0.5149276256561279,0.17677557468414307,-0.33435583114624023,0.2876575291156769,-0.3880300223827362,-0.251777708530426,-0.11271078139543533,0.33019495010375977,0.37577396631240845,0.1463669240474701,0.3187130391597748,0.06269269436597824,-0.288359135389328,0.006136201787739992,-0.06474759429693222],[-0.002830426674336195,-0.3693831264972687,0.004263818729668856,0.030022939667105675,0.2350330501794815,-0.04773414134979248,0.1346621811389923,-0.16402071714401245,-0.4603440463542938,-0.0035415668971836567,0.3826204538345337,-0.08471576869487762,0.6076080799102783,-0.14643649756908417,0.22962984442710876,-0.03227364644408226,-0.2657689154148102,0.22709591686725616,-0.2342752367258072,-0.19433413445949554,0.4366682469844818,-0.16291627287864685,-0.37201398611068726,-0.29232192039489746]],"bias":[0.007936020381748676,-0.006389988586306572,-0.1154429167509079,0.10907620191574097,-0.006917842663824558,0.02784966491162777,0.012408612295985222,0.06568769365549088,0.04991988092660904,-0.038581959903240204,0.04026353731751442,-0.021364882588386536,0.14046545326709747,0.14337342977523804,0.03231235221028328,0.11048954725265503,-0.012352287769317627,0.16896305978298187,0.048316434025764465,0.17359524965286255,0.007148969918489456,0.030897188931703568,-0.02133648656308651,-0.10964322835206985]},{"kernel":[[0.3968704342842102,-0.13925379514694214,-0.18764418363571167,0.037309933453798294,-0.13982102274894714,-0.43812453746795654,-0.20897336304187775,0.25950372219085693,0.04497181251645088,0.07350335270166397,0.11432166397571564,-0.2654449939727783],[0.44273871183395386,0.10497363656759262,-0.32683470845222473,-0.48391544818878174,0.2980769872665405,0.2553292214870453,-0.060152918100357056,-0.03821191564202309,-0.1672419011592865,-0.19079263508319855,0.05900315195322037,-0.3137977123260498],[0.3483077883720398,0.1641221046447754,0.12183822691440582,-0.37481868267059326,0.18215186893939972,-0.11190620809793472,0.24279117584228516,0.21851150691509247,-0.21282286942005157,-0.026688676327466965,0.05130452662706375,-0.41226842999458313],[-0.0008701811311766505,-0.40504342317581177,0.4038368761539459,0.45196518301963806,0.29810550808906555,0.1419510394334793,0.2046167403459549,-0.15181751549243927,0.2695942223072052,-0.1801193654537201,0.17012198269367218,-0.048513997346162796],[-0.33634892106056213,-0.1977139264345169,0.01436262670904398,-0.08711078763008118,-0.3836047947406769,0.3054109811782837,0.028664903715252876,-0.01918691210448742,0.2245107740163803,-0.20009805262088776,-0.075867660343647,-0.026319541037082672],[-0.04148994758725166,0.38187354803085327,-0.020503100007772446,-0.22621144354343414,0.3211655020713806,0.18094678223133087,-0.09780749678611755,0.44444772601127625,0.3739292323589325,-0.22191478312015533,0.27501779794692993,-0.3149806559085846],[0.05832825228571892,-0.07326269149780273,0.07276046276092529,-0.37031400203704834,0.3400029242038727,0.33182379603385925,0.05890179052948952,0.47346481680870056,0.32283467054367065,0.20082247257232666,-0.14526529610157013,0.12722241878509521],[0.3717916011810303,-0.24941426515579224,-0.3691902756690979,-0.5274327397346497,-0.20214958488941193,-0.09911578893661499,-0.3803558647632599,-0.1638062447309494,0.5098730325698853,0.025282230228185654,-0.09506569057703018,-0.4044862389564514],[0.2527344524860382,-0.051540814340114594,0.23238429427146912,-0.44099119305610657,0.12232321500778198,-0.37418892979621887,-0.17913715541362762,-0.1056809052824974,-0.13302621245384216,-0.13601268827915192,0.3227408826351166,0.24107211828231812],[0.10555312037467957,-0.27574366331100464,-0.0940990149974823,-0.29200443625450134,-0.20288805663585663,0.40129780769348145,-0.0006490488303825259,-0.3151136040687561,0.08858814835548401,0.13304461538791656,0.21990922093391418,-0.2692481279373169],[0.013612213544547558,-0.10676559805870056,-0.21654391288757324,0.03156111761927605,0.23219357430934906,0.45275548100471497,-0.1736149936914444,0.20429928600788116,0.37784090638160706,-0.0037249717861413956,-0.34124961495399475,0.21108020842075348],[0.054253291338682175,0.3316604495048523,0.01843646727502346,0.14747992157936096,0.23364368081092834,-0.2541814148426056,-0.10436820238828659,-0.34348756074905396,-0.3525618314743042,-0.0944490060210228,0.3398182690143585,0.26967325806617737],[-0.12307240813970566,-0.13375064730644226,0.18721473217010498,0.27708080410957336,-0.37365737557411194,0.3146169185638428,0.2972370982170105,0.22432559728622437,0.020438896492123604,-0.3011574447154999,-0.07027295976877213,-0.013014690019190311],[0.19583182036876678,-0.13014061748981476,0.21680848300457,0.07555398344993591,0.04111694544553757,-0.31912535429000854,-0.06108701601624489,0.07009553909301758,-0.02643786370754242,-0.2134772688150406,-0.14068515598773956,-0.31351372599601746],[-0.41695845127105713,-0.09291999787092209,0.07403576374053955,-0.1368577778339386,-0.28794342279434204,0.264933317899704,-0.0913645476102829,0.2603345513343811,-0.46855923533439636,-0.031183164566755295,-0.06236258149147034,0.3527182936668396],[0.15222294628620148,0.01506737619638443,0.2931217551231384,-0.02845112793147564,0.08509156852960587,-0.28201472759246826,0.3105181157588959,-0.007998231798410416,-0.4619903564453125,-0.1380118429660797,-0.20752906799316406,0.041745495051145554],[-0.05371706187725067,-0.015334575437009335,0.20186789333820343,-0.054999250918626785,-0.15128721296787262,-0.27580830454826355,-0.19951669871807098,-0.37383246421813965,-0.29392868280410767,0.2845195233821869,-0.005008040461689234,-0.11109396815299988],[-0.2681693434715271,0.28224867582321167,-0.037996623665094376,0.4011986255645752,0.07823830842971802,0.2184617668390274,0.2314532846212387,0.43510425090789795,0.2990066409111023,-0.025851549580693245,0.23839834332466125,-0.44687503576278687],[-0.083626888692379,0.34729138016700745,0.3521426022052765,0.3172263503074646,0.16985094547271729,-0.08749503642320633,-0.26512411236763,0.2642422318458557,0.2204984575510025,-0.062395982444286346,0.2596232295036316,0.04599370062351227],[-0.07298814505338669,-0.398388534784317,0.224587544798851,0.26319992542266846,0.3454911410808563,0.308379590511322,-0.2641904950141907,-0.3146045506000519,-0.36010506749153137,-0.15298986434936523,0.1354159414768219,0.09674672037363052],[-0.2888215184211731,0.07710644602775574,-0.0734691321849823,0.3253069818019867,0.2676725685596466,0.14517280459403992,-0.11915156245231628,0.011634660884737968,0.19134223461151123,0.19663548469543457,0.18863065540790558,-0.1831735223531723],[-0.14688533544540405,-0.32612475752830505,-0.26592904329299927,0.06691434234380722,-0.31796860694885254,-0.022811759263277054,-0.1849435716867447,0.3321763575077057,-0.305040568113327,0.08799398690462112,-0.3542889356613159,-0.18534314632415771],[0.05752142518758774,0.08893337100744247,-0.22462734580039978,0.3153912127017975,0.1051437184214592,0.08607622236013412,0.3488643169403076,-0.022767359390854836,-0.2756914794445038,-0.06724578887224197,0.2142992615699768,-0.15722277760505676],[-0.11727721244096756,-0.1725764274597168,-0.37246236205101013,-0.40295544266700745,-0.35573330521583557,0.35748398303985596,-0.1384250521659851,0.05641589313745499,-0.15048451721668243,0.12355875968933105,0.35864007472991943,-0.036310162395238876]],"bias":[0.011331767775118351,0.04370879754424095,0.10317520052194595,0.1025380864739418,-0.0023934736382216215,0.10784958302974701,-0.035721782594919205,0.06293796002864838,0.036797016859054565,-0.0037211484741419554,0.0100374985486269,0.0005089411861263216]},{"kernel":[[0.4967206120491028,-0.14505226910114288,-0.1563049852848053,0.36867785453796387,-0.06256246566772461,-0.017774077132344246],[-0.43171608448028564,0.6758958101272583,0.11785808205604553,0.2592054307460785,-0.36778056621551514,0.14276902377605438],[-0.51952064037323,0.5410428047180176,-0.14348934590816498,-0.5636661052703857,-0.49771174788475037,0.47038552165031433],[-0.2682412564754486,0.580927312374115,-0.4997539520263672,0.36693400144577026,0.23080815374851227,0.11126859486103058],[-0.005984422750771046,0.35000360012054443,0.10574518889188766,0.27006056904792786,0.5362851619720459,0.4807012379169464],[-0.4178287386894226,-0.058371007442474365,0.3313955068588257,-0.4086413085460663,-0.46906670928001404,0.08569183200597763],[0.27144870162010193,0.07237618416547775,-0.03316449373960495,-0.02764439955353737,0.3041275441646576,0.06452913582324982],[-0.42669016122817993,0.5054315328598022,0.3528161644935608,0.05573251470923424,-0.03004605881869793,-0.20534445345401764],[0.5567649006843567,-0.32299625873565674,0.4774942994117737,0.16361968219280243,-0.3126923441886902,0.11443043500185013],[0.1763714998960495,0.08902493864297867,0.04433247819542885,0.31285375356674194,0.24146053194999695,0.032081883400678635],[0.21646852791309357,0.07264542579650879,-0.2866690456867218,0.09074559062719345,-0.0005623429315164685,0.20695844292640686],[-0.21466580033302307,-0.034859154373407364,-0.6728612780570984,0.16080018877983093,0.20795029401779175,0.3601856231689453]],"bias":[0.10208731889724731,-0.012585745193064213,0.11872706562280655,-0.10432063043117523,-0.015237233601510525,0.028554001823067665]},{"kernel":[[0.7694939970970154,0.7092174887657166],[-0.41674739122390747,-0.5496171116828918],[0.9039106369018555,0.5916494131088257],[0.5998371839523315,-0.7192568778991699],[0.506004273891449,-0.302018940448761],[-0.27677804231643677,0.038424115628004074]],"bias":[0.02761579118669033,0.11699070781469345]}],[{"kernel":[[0.40355876088142395,0.20043495297431946,-0.10931643098592758,0.004347715526819229,-0.19060029089450836,-0.3059515953063965,0.33626919984817505,-0.124294213950634,0.1486491858959198,0.08562874048948288,-0.16352109611034393,0.14901772141456604,-0.3725620210170746,-0.22990547120571136,0.15383489429950714,0.4644619822502136,-0.33819594979286194,-0.32698315382003784,0.1723027527332306,-0.17427778244018555,0.30739033222198486,0.4179074764251709,-0.15619133412837982,0.223295196890831],[0.12951911985874176,0.020693570375442505,-0.20624995231628418,-0.04388792812824249,0.28871601819992065,-0.16029934585094452,0.38857224583625793,0.2673455774784088,0.3802962303161621,0.3927280604839325,0.061948057264089584,0.46177560091018677,0.2721535265445709,0.15871363878250122,-0.04379020631313324,0.1818581521511078,0.11544307321310043,-0.038906801491975784,-0.21878941357135773,0.1472218632698059,0.10204538702964783,-0.007421792019158602,0.35135412216186523,-0.13680881261825562],[0.2656908631324768,-0.2370782196521759,0.12144450843334198,0.17136380076408386,0.03774629905819893,-0.36578428745269775,-0.5847414135932922,0.2892557680606842,0.25030502676963806,0.2015698403120041,-0.0571853332221508,0.5192613005638123,-0.3244377672672272,0.37074992060661316,-0.3764631748199463,0.3297653794288635,0.32209837436676025,0.3973846733570099,-0.12663039565086365,-0.29168274998664856,0.0170401930809021,-0.2080410122871399,-0.24342308938503265,0.01862655207514763],[-0.10912247002124786,-0.4444274306297302,0.4055953025817871,0.26095280051231384,0.08639253675937653,0.31619787216186523,0.3997400104999542,0.3030034005641937,0.10686952620744705,-0.12550020217895508,-0.1589822620153427,0.28035444021224976,-0.10987802594900131,-0.2996257543563843,-0.44357022643089294,-0.24340976774692535,-0.3209913671016693,-0.09767954796552658,-0.2233036458492279,0.3362567126750946,-0.20969727635383606,0.35086125135421753,0.3438863754272461,-0.45900586247444153],[0.21321377158164978,0.5502970218658447,0.5974111557006836,-0.04053862765431404,0.38617464900016785,0.17322474718093872,-0.17670191824436188,0.003344523487612605,-0.10245013982057571,0.13896021246910095,0.030981099233031273,-0.32996895909309387,0.5951900482177734,0.23875266313552856,-0.20424582064151764,-0.45982062816619873,-0.4376157522201538,0.4191376864910126,0.4752770662307739,-0.10372640937566757,0.08518879115581512,0.21647992730140686,-0.5931710600852966,-0.307089626789093],[0.30817273259162903,0.13230285048484802,0.0735444724559784,0.09094937145709991,0.09550374746322632,-0.45387449860572815,0.07700251787900925,-0.24287061393260956,-0.019559090957045555,-0.37874072790145874,-0.511186420917511,0.27501580119132996,0.2721072733402252,0.3823058605194092,-0.08079088479280472,-0.3722904622554779,-0.030323723331093788,-0.35815170407295227,-0.3577360212802887,-0.5893748998641968,-0.4260672926902771,-0.5455605387687683,0.5240789651870728,-0.38166365027427673]],"bias":[0.10365093499422073,0.02662649191915989,0.22083373367786407,0.04346659779548645,-0.027520088478922844,0.053996630012989044,-0.07009411603212357,0.1537902057170868,-0.19304077327251434,0.0718366876244545,0.112294040620327,0.09041643142700195,0.23370632529258728,0.0077333818189799786,0.08559068292379379,-0.1622340977191925,0.11252456903457642,-0.03725796937942505,0.16641414165496826,0.05736891180276871,0.1873825639486313,-0.08256515860557556,0.07997240871191025,-0.11370393633842468]},{"kernel":[[-0.29192638397216797,0.35120588541030884,-0.17087599635124207,-0.04830782115459442,0.08952581882476807,-0.09053325653076172,-0.2789613604545593,0.4480504095554352,-0.01920527033507824,0.11739034950733185,-0.37567639350891113,0.045211926102638245],[0.35821300745010376,-0.15383906662464142,-0.1904885172843933,0.4252869188785553,0.374235063791275,-0.24568894505500793,0.23577576875686646,-0.18877065181732178,-0.24489617347717285,0.17278750240802765,0.24213926494121552,0.23607496917247772],[-0.12415116280317307,-0.04802204668521881,-0.09653625637292862,0.5274784564971924,0.0370355062186718,0.2068839818239212,-0.07056471705436707,-0.33886411786079407,0.27576982975006104,-0.12105029821395874,0.38368356227874756,0.5069139003753662],[0.2674477994441986,-0.08595084398984909,-0.1852603703737259,0.2641114592552185,0.25830599665641785,0.1329955905675888,-0.17272651195526123,0.2411198616027832,0.3468085825443268,0.0918864756822586,0.47192537784576416,0.17906025052070618],[0.23379020392894745,-0.27275335788726807,0.24008673429489136,0.36978304386138916,0.25107139348983765,0.2757126986980438,0.24502132833003998,0.1270144283771515,-0.2596972584724426,0.47697293758392334,-0.13971737027168274,-0.038514845073223114],[0.10366445779800415,-0.22578442096710205,-0.04496925324201584,0.36375996470451355,0.02516874670982361,-0.3828470706939697,-0.024262866005301476,0.20862889289855957,0.03799383342266083,-0.42303481698036194,0.025216419249773026,0.22078299522399902],[0.27065715193748474,0.14811034500598907,-0.33753907680511475,-0.23009270429611206,0.37061023712158203,-0.07524120062589645,0.08842942118644714,0.2883293330669403,-0.06215779855847359,0.17557170987129211,-0.054176609963178635,0.12459731101989746],[0.3368692696094513,0.2159074991941452,0.2895534634590149,0.29633641242980957,0.06357303261756897,-0.147344708442688,-0.3706970512866974,-0.23617932200431824,0.00015445704048033804,-0.3045816719532013,0.1526922881603241,0.15592926740646362],[0.20179742574691772,0.020019521936774254,-0.043644025921821594,-0.07789140194654465,0.039603110402822495,-0.6186861991882324,0.03764967620372772,-0.04065769910812378,-0.06663374602794647,-0.22183895111083984,-0.2463398426771164,-0.39279258251190186],[0.4344694912433624,-0.43689215183258057,0.13161195814609528,0.38820526003837585,-0.15190909802913666,0.23747707903385162,-0.18217121064662933,0.2928343415260315,0.19744908809661865,-0.15756425261497498,-0.398976594209671,-0.06997229903936386],[-0.0369236022233963,-0.18914879858493805,0.054011862725019455,0.12176033109426498,0.13898919522762299,-0.21753911674022675,-0.05062741041183472,0.07673632353544235,-0.02472149021923542,-0.203924760222435,0.3625471889972687,-0.15421666204929352],[0.28535881638526917,0.4533286988735199,-0.4313589930534363,-0.17632374167442322,-0.14864075183868408,0.03300797939300537,0.27758973836898804,0.3140580356121063,0.27519863843917847,0.40609732270240784,-0.1272648423910141,-0.419089674949646],[0.02932749316096306,-0.06358874589204788,0.431363970041275,0.5306292772293091,-0.03160027787089348,0.11772634088993073,0.09177279472351074,-0.39895904064178467,0.4178353548049927,0.4156188368797302,0.22165006399154663,0.6156975030899048],[-0.16710613667964935,-0.04014361649751663,0.4065890908241272,-0.10058813542127609,0.15701571106910706,0.04966336488723755,-0.6880971193313599,0.2195824384689331,-0.24999423325061798,-0.2516358196735382,0.22732773423194885,-0.19140103459358215],[0.4987037181854248,-0.2636966407299042,0.29528045654296875,-0.15404467284679413,0.04103681817650795,-0.06891793757677078,-0.19313810765743256,-0.16648907959461212,-0.3193773329257965,-0.22408336400985718,0.323059618473053,0.34717658162117004],[0.14303529262542725,0.40671634674072266,0.30710873007774353,-0.4677870571613312,-0.5001034736633301,0.08930905908346176,-0.23997560143470764,0.05536511912941933,-0.19938310980796814,-0.5748369097709656,-0.2583249509334564,0.05652100220322609],[0.22165054082870483,0.1298539638519287,0.2748257517814636,-0.2521457374095917,-0.49988263845443726,-0.0027136853896081448,0.0690627470612526,0.21315303444862366,0.028368862345814705,-0.4250861406326294,0.47553569078445435,-0.32694920897483826],[0.22679081559181213,0.34474992752075195,0.04467904567718506,0.01532127894461155,0.3387674391269684,0.2725537419319153,0.11003684997558594,-0.045236360281705856,-0.1577668935060501,0.3275398910045624,-0.339498907327652,0.06808329373598099],[-0.11365175247192383,-0.33385592699050903,0.41750669479370117,-0.028363380581140518,0.32468220591545105,0.11794085055589676,0.13634222745895386,-0.31171512603759766,0.3164483308792114,-0.07740943133831024,0.48252639174461365,0.19283518195152283],[0.31312668323516846,0.1129244863986969,0.15808521211147308,0.24224600195884705,-0.1213497593998909,-0.2552678883075714,-0.34437909722328186,0.4927143454551697,0.005562470760196447,-0.5143682956695557,0.0653206929564476,0.38252052664756775],[0.2925776541233063,-0.047184426337480545,-0.0012175741139799356,-0.15627793967723846,0.2080812156200409,0.14962780475616455,-0.19763928651809692,0.4568214416503906,0.1337452083826065,0.19631215929985046,-0.08748652040958405,0.3585803806781769],[-0.373563677072525,-0.14589662849903107,0.06383813172578812,0.30697184801101685,-0.17459198832511902,0.06969287246465683,-0.22452802956104279,0.2491617202758789,-0.2690275013446808,-0.4979041814804077,-0.14471547305583954,0.22912736237049103],[0.14147311449050903,0.2802439332008362,-0.19227221608161926,-0.3934068977832794,0.07412568479776382,0.06996846199035645,0.4497162103652954,-0.1925782412290573,0.36799484491348267,0.019040847197175026,0.02090783789753914,0.47366589307785034],[0.5079703330993652,-0.021363889798521996,-0.07972309738397598,0.18226425349712372,0.2110937386751175,0.23784005641937256,-0.039772484451532364,0.32981589436531067,-0.06667855381965637,0.2480611503124237,-0.019031384959816933,0.31538575887680054]],"bias":[0.06781347095966339,-0.005077915266156197,-0.17292183637619019,0.09143281728029251,-0.01766948401927948,-0.03153149038553238,0.11899564415216446,0.013767106458544731,0.07919272780418396,0.11793388426303864,0.11707626283168793,0.10382016003131866]},{"kernel":[[0.019750123843550682,-0.011490533128380775,0.5311073064804077,-0.037969477474689484,0.24025076627731323,0.20330286026000977],[0.516247570514679,-0.04891673102974892,-0.1748187392950058,0.40435075759887695,-0.5846148133277893,-0.41616031527519226],[0.4731214642524719,-0.3286408483982086,0.10092809796333313,0.3067918121814728,0.2649589478969574,-0.21733905375003815],[0.1643514782190323,-0.35731232166290283,0.6018551588058472,-0.10499013960361481,-0.2051384001970291,-0.33059805631637573],[-0.10609361529350281,0.09109114855527878,0.20569150149822235,0.019426612183451653,0.27172568440437317,0.4488828778266907],[-0.2784273028373718,-0.017356742173433304,-0.5151863098144531,0.6032589673995972,-0.4888942539691925,0.14809104800224304],[-0.3625105023384094,0.021233154460787773,0.4794309139251709,0.03867596387863159,0.21058176457881927,0.7215617299079895],[-0.5719348192214966,0.3720884919166565,-0.03358156979084015,0.13474087417125702,-0.22672240436077118,-0.21885424852371216],[0.46962717175483704,-0.448645681142807,0.12974056601524353,-0.36599230766296387,0.034622736275196075,0.04102516174316406],[-0.1885623037815094,0.20720583200454712,0.5480908751487732,-0.09466461092233658,0.49682867527008057,0.7813301086425781],[0.4299696087837219,0.07917677611112595,-0.834038496017456,0.47695109248161316,0.31462299823760986,0.13385386765003204],[0.3386686146259308,0.07066623866558075,0.4095453917980194,0.36158907413482666,-0.47842392325401306,0.25052502751350403]],"bias":[0.04184701666235924,-0.08950965106487274,0.03493708372116089,-0.03185134008526802,0.22116594016551971,0.006158654578030109]},{"kernel":[[-1.0584484338760376,-0.9477967023849487],[0.2539551258087158,-0.7053636908531189],[0.6693030595779419,0.9936543107032776],[-0.06288698315620422,-0.7583023905754089],[-0.700818657875061,1.1033908128738403],[0.7634711861610413,0.24186140298843384]],"bias":[0.0023755591828376055,0.13155750930309296]}]],"feature_stats":{"H_total":{"min":8.5,"max":64.26,"mean":26.608,"median":25.5},"N_etages":{"min":2.0,"max":21.0,"mean":8.427,"median":8.0},"L_xx":{"min":10.75,"max":40.74,"mean":23.729,"median":23.924999999999997},"L_yy":{"min":8.3,"max":31.8,"mean":18.533,"median":18.325000000000003},"Trav_max_xx":{"min":2.95,"max":7.07,"mean":4.847,"median":4.8},"Trav_max_yy":{"min":2.85,"max":6.5,"mean":4.287,"median":4.24}},"target_stats":{"Tx":{"min":0.26,"max":1.778,"mean":0.719},"Ty":{"min":0.25,"max":1.804,"mean":0.644}},"n_buildings":96,"dataset":{"X":[[38.08,11.0,40.74,14.7,5.3,3.95],[25.5,8.0,22.2,16.75,6.0,4.6],[18.36,6.0,24.7,14.25,4.8,3.8],[16.32,5.0,21.35,10.7,4.7,3.1],[29.41,9.0,20.0,11.73,6.03,3.55],[19.38,6.0,19.7,27.3,6.2,4.7],[19.38,6.0,20.5,9.32,4.8,3.05],[45.22,14.0,21.4,21.6,5.1,3.8],[22.44,7.0,32.82,11.96,4.92,4.45],[64.26,21.0,31.0,12.0,6.5,6.5],[40.8,13.0,27.8,26.85,5.5,4.5],[13.26,4.0,27.8,26.85,5.5,4.5],[21.42,7.0,15.8,13.74,5.35,4.2],[15.3,5.0,15.0,14.0,5.0,3.45],[37.74,12.0,31.6,21.9,4.3,4.2],[24.48,8.0,31.21,15.0,5.7,4.0],[28.56,9.0,23.35,22.36,4.4,2.85],[40.8,13.0,19.83,20.29,6.09,3.66],[22.44,7.0,20.6,19.5,4.9,4.75],[25.5,8.0,22.4,16.7,6.4,4.6],[22.44,7.0,26.4,18.3,4.9,3.4],[15.3,5.0,26.0,26.0,4.6,4.6],[33.33,10.0,23.95,21.2,4.2,4.2],[15.3,5.0,27.2,18.7,4.8,3.7],[39.78,13.0,22.3,10.7,5.4,5.6],[21.96,7.0,28.71,27.55,4.7,4.3],[24.48,8.0,25.9,18.35,4.65,3.7],[18.36,6.0,28.0,24.0,4.8,4.75],[21.42,7.0,31.5,20.0,4.8,4.75],[28.2,9.0,34.63,30.5,4.8,4.7],[24.82,8.0,19.2,9.1,4.2,4.0],[21.42,7.0,23.17,30.35,5.02,4.7],[28.56,9.0,18.35,11.92,3.6,3.6],[29.72,9.0,26.23,21.1,6.68,4.05],[31.62,10.0,28.5,22.9,5.45,4.95],[18.36,6.0,36.8,20.6,5.05,3.6],[29.66,9.0,28.79,21.09,5.78,4.45],[27.54,9.0,28.6,18.5,5.0,5.2],[40.52,13.0,24.45,14.9,6.3,5.25],[33.66,11.0,29.6,22.5,4.8,4.4],[31.77,10.0,24.05,15.5,4.35,5.11],[30.94,10.0,13.0,17.75,5.0,4.45],[31.79,10.0,28.0,18.6,3.3,3.9],[30.6,10.0,28.9,21.3,5.15,5.9],[28.56,9.0,21.5,16.5,4.6,2.9],[27.71,9.0,24.64,26.95,5.03,4.97],[18.36,6.0,19.76,9.36,4.6,4.4],[27.54,9.0,24.7,19.95,5.45,4.95],[27.54,9.0,24.44,28.54,4.88,4.28],[38.45,11.0,22.2,15.75,7.07,5.2],[48.2,16.0,31.85,28.35,6.54,6.3],[27.54,9.0,23.7,22.17,6.55,3.15],[30.6,10.0,29.54,29.54,5.45,3.9],[27.54,9.0,20.5,15.65,5.72,5.6],[27.5,7.0,26.0,15.23,7.05,5.85],[23.36,7.0,13.45,22.74,6.4,5.32],[8.5,2.0,12.5,22.83,6.9,5.61],[32.4,11.0,22.5,20.3,5.1,5.0],[24.48,8.0,17.45,8.85,3.7,4.85],[24.48,8.0,20.65,9.0,4.85,5.3],[24.82,8.0,26.9,20.2,5.5,5.0],[22.78,7.0,15.2,26.4,4.1,4.1],[18.36,6.0,28.25,12.05,3.15,3.75],[20.48,6.0,19.35,17.35,4.45,3.25],[18.36,6.0,26.6,19.3,4.6,3.3],[25.5,8.0,16.71,21.89,3.95,3.3],[19.38,6.0,25.4,15.15,4.0,4.0],[22.44,7.0,15.96,18.2,4.2,3.4],[19.38,6.0,20.05,11.35,3.35,3.05],[25.5,8.0,24.9,15.1,4.25,3.35],[26.22,8.0,10.75,11.8,4.7,3.5],[24.48,8.0,24.05,14.45,3.5,3.25],[18.36,6.0,16.0,13.3,2.95,4.95],[22.44,7.0,18.15,24.25,3.45,3.25],[28.56,9.0,17.5,28.2,4.0,3.7],[31.62,10.0,21.57,13.9,4.45,4.66],[19.38,6.0,28.8,19.59,4.12,3.6],[19.38,6.0,26.95,14.65,5.75,3.55],[17.56,6.0,22.0,8.3,4.35,3.35],[25.5,8.0,19.65,12.6,3.05,4.2],[25.5,8.0,25.2,15.4,4.15,3.95],[38.24,12.0,24.9,17.44,3.25,3.75],[31.62,10.0,19.46,22.5,3.55,4.35],[31.61,10.0,23.7,9.5,4.55,3.35],[30.6,10.0,19.2,31.8,5.35,4.8],[28.56,9.0,26.75,21.75,3.65,5.3],[18.36,6.0,16.25,12.95,3.95,3.05],[19.72,6.0,23.9,9.3,3.15,4.85],[28.98,9.0,32.45,30.4,5.2,5.18],[19.72,6.0,24.9,15.2,4.15,4.15],[15.3,5.0,19.48,11.32,5.44,4.64],[30.6,10.0,29.9,18.4,4.15,4.05],[28.56,9.0,18.15,15.4,3.55,5.05],[31.3,10.0,27.03,25.25,4.55,3.95],[30.6,10.0,22.95,30.05,5.6,4.95],[31.62,10.0,21.57,13.9,4.45,4.6]],"y":[[0.695,0.642],[0.781,0.799],[0.487,0.529],[0.562,0.487],[0.91,0.731],[0.539,0.346],[0.582,0.597],[0.944,0.651],[0.703,0.453],[1.319,0.916],[0.988,0.916],[0.561,0.491],[0.593,0.532],[0.416,0.422],[0.72,0.64],[0.63,0.614],[0.932,0.875],[1.054,1.122],[0.494,0.597],[0.798,0.647],[0.87,0.77],[0.46,0.4924],[0.556,0.693],[0.26,0.32],[1.778,1.804],[0.447,0.438],[0.623,0.583],[0.46,0.27],[0.399,0.305],[0.523,0.574],[0.521,0.479],[0.369,0.25],[0.754,0.617],[0.651,0.61],[0.602,0.707],[0.464,0.259],[0.85,0.75],[0.685,0.465],[1.375,1.771],[0.69,0.641],[0.751,0.603],[0.93,0.73],[0.827,0.787],[0.697,0.674],[0.71,0.78],[1.001,0.637],[0.344,0.356],[0.625,0.542],[0.521,0.509],[1.002,0.907],[1.203,1.276],[0.633,0.625],[0.926,1.014],[0.918,0.736],[0.786,0.712],[1.024,0.919],[0.573,0.471],[0.813,0.767],[0.619,0.78],[0.49,0.56],[0.841,0.742],[0.84,0.71],[0.38,0.39],[0.694,0.452],[0.436,0.334],[0.898,0.702],[0.627,0.364],[0.786,0.504],[0.546,0.47],[0.735,0.472],[0.721,0.519],[0.677,0.59],[0.708,0.613],[0.655,0.531],[0.747,0.768],[0.839,0.623],[0.627,0.481],[0.698,0.601],[0.519,0.523],[0.775,0.669],[0.766,0.723],[0.955,0.756],[0.819,0.695],[0.812,0.626],[0.764,0.653],[0.953,0.861],[0.571,0.391],[0.487,0.406],[0.683,0.804],[0.553,0.858],[0.456,0.365],[0.784,0.687],[0.764,0.676],[0.797,0.685],[0.818,0.661],[0.864,0.72]],"bid":[1,2,3,4,5,6,7,8,9,10,11,12,13,14,15,16,17,18,19,20,21,22,23,24,26,27,28,29,30,31,32,33,34,35,36,37,38,39,40,41,42,43,44,45,46,47,48,49,50,51,52,53,54,55,56,57,58,59,60,62,63,64,65,66,67,68,69,70,71,72,73,74,76,77,78,79,80,81,82,83,84,85,86,87,88,89,91,92,93,94,95,96,97,98,99,100],"train_idx":[40,67,15,68,88,9,39,11,45,55,28,72,70,5,44,49,35,16,47,34,7,91,27,19,78,25,89,13,24,3,17,38,8,75,6,62,36,84,56,95,54,43,50,65,46,66,61,93,76,41,58,48,83,57,32,90,59,63,81,37,29,1,52,21,2,23,87,74,86,82,20,60,71,14,92,51],"test_idx":[80,77,73,94,33,79,69,42,0,10,64,30,18,4,31,26,12,22,53,85]}};
